<?xml version="1.0"?>
<opencv_storage>
<cascade>
  <stageType>BOOST</stageType>
  <featureType>HAAR</featureType>
  <height>24</height>
  <width>24</width>
  <stageParams>
    <boostType>GAB</boostType>
    <minHitRate>9.9500000476837158e-01</minHitRate>
    <maxFalseAlarm>5.0000000000000000e-01</maxFalseAlarm>
    <weightTrimRate>9.4999999999999996e-01</weightTrimRate>
    <maxDepth>1</maxDepth>
    <maxWeakCount>100</maxWeakCount></stageParams>
  <featureParams>
    <maxCatCount>0</maxCatCount>
    <featSize>1</featSize>
    <mode>BASIC</mode></featureParams>
  <stageNum>12</stageNum>
  <stages>
    <!-- stage 0 -->
    <_>
      <maxWeakCount>1</maxWeakCount>
      <stageThreshold>9.3059939146041870e-01</stageThreshold>
      <weakClassifiers>
        <_>
          <internalNodes>
            0 -1 5 6.8141228985041380e-04</internalNodes>
          <leafValues>
            -1. 9.3059939146041870e-01</leafValues></_></weakClassifiers></_>
    <!-- stage 1 -->
    <_>
      <maxWeakCount>1</maxWeakCount>
      <stageThreshold>9.8379254341125488e-01</stageThreshold>
      <weakClassifiers>
        <_>
          <internalNodes>
            0 -1 1 -1.1899849772453308e-01</internalNodes>
          <leafValues>
            -1. 9.8379254341125488e-01</leafValues></_></weakClassifiers></_>
    <!-- stage 2 -->
    <_>
      <maxWeakCount>1</maxWeakCount>
      <stageThreshold>9.0951639413833618e-01</stageThreshold>
      <weakClassifiers>
        <_>
          <internalNodes>
            0 -1 4 -4.5619546435773373e-03</internalNodes>
          <leafValues>
            9.0951639413833618e-01 -1.</leafValues></_></weakClassifiers></_>
    <!-- stage 3 -->
    <_>
      <maxWeakCount>1</maxWeakCount>
      <stageThreshold>8.1872212886810303e-01</stageThreshold>
      <weakClassifiers>
        <_>
          <internalNodes>
            0 -1 10 5.3475814638659358e-04</internalNodes>
          <leafValues>
            8.1872212886810303e-01 -1.</leafValues></_></weakClassifiers></_>
    <!-- stage 4 -->
    <_>
      <maxWeakCount>1</maxWeakCount>
      <stageThreshold>8.2361733913421631e-01</stageThreshold>
      <weakClassifiers>
        <_>
          <internalNodes>
            0 -1 2 -1.6141793131828308e-01</internalNodes>
          <leafValues>
            8.2361733913421631e-01 -9.3939393758773804e-01</leafValues></_></weakClassifiers></_>
    <!-- stage 5 -->
    <_>
      <maxWeakCount>1</maxWeakCount>
      <stageThreshold>8.3483481407165527e-01</stageThreshold>
      <weakClassifiers>
        <_>
          <internalNodes>
            0 -1 11 -9.2690676683560014e-04</internalNodes>
          <leafValues>
            -9.7101449966430664e-01 8.3483481407165527e-01</leafValues></_></weakClassifiers></_>
    <!-- stage 6 -->
    <_>
      <maxWeakCount>2</maxWeakCount>
      <stageThreshold>-1.6327263787388802e-02</stageThreshold>
      <weakClassifiers>
        <_>
          <internalNodes>
            0 -1 6 -1.8116623163223267e-01</internalNodes>
          <leafValues>
            -9.0588235855102539e-01 8.7076920270919800e-01</leafValues></_>
        <_>
          <internalNodes>
            0 -1 13 1.1710517574101686e-03</internalNodes>
          <leafValues>
            -4.4993057847023010e-01 8.8955509662628174e-01</leafValues></_></weakClassifiers></_>
    <!-- stage 7 -->
    <_>
      <maxWeakCount>3</maxWeakCount>
      <stageThreshold>1.1490330696105957e+00</stageThreshold>
      <weakClassifiers>
        <_>
          <internalNodes>
            0 -1 3 -1.0159427300095558e-02</internalNodes>
          <leafValues>
            -1. 8.0797636508941650e-01</leafValues></_>
        <_>
          <internalNodes>
            0 -1 12 5.1320758648216724e-03</internalNodes>
          <leafValues>
            -3.8805177807807922e-01 9.7881120443344116e-01</leafValues></_>
        <_>
          <internalNodes>
            0 -1 9 3.4773822408169508e-03</internalNodes>
          <leafValues>
            -6.3775449991226196e-01 9.6573817729949951e-01</leafValues></_></weakClassifiers></_>
    <!-- stage 8 -->
    <_>
      <maxWeakCount>1</maxWeakCount>
      <stageThreshold>8.5735964775085449e-01</stageThreshold>
      <weakClassifiers>
        <_>
          <internalNodes>
            0 -1 14 1.0598794557154179e-02</internalNodes>
          <leafValues>
            8.5735964775085449e-01 -1.</leafValues></_></weakClassifiers></_>
    <!-- stage 9 -->
    <_>
      <maxWeakCount>1</maxWeakCount>
      <stageThreshold>8.6018234491348267e-01</stageThreshold>
      <weakClassifiers>
        <_>
          <internalNodes>
            0 -1 7 8.0970171838998795e-03</internalNodes>
          <leafValues>
            8.6018234491348267e-01 -1.</leafValues></_></weakClassifiers></_>
    <!-- stage 10 -->
    <_>
      <maxWeakCount>1</maxWeakCount>
      <stageThreshold>8.5173976421356201e-01</stageThreshold>
      <weakClassifiers>
        <_>
          <internalNodes>
            0 -1 0 -2.4043123424053192e-01</internalNodes>
          <leafValues>
            -1. 8.5173976421356201e-01</leafValues></_></weakClassifiers></_>
    <!-- stage 11 -->
    <_>
      <maxWeakCount>1</maxWeakCount>
      <stageThreshold>8.8307690620422363e-01</stageThreshold>
      <weakClassifiers>
        <_>
          <internalNodes>
            0 -1 8 2.5108123663812876e-03</internalNodes>
          <leafValues>
            8.8307690620422363e-01 -1.</leafValues></_></weakClassifiers></_></stages>
  <features>
    <_>
      <rects>
        <_>
          1 9 22 8 -1.</_>
        <_>
          12 9 11 8 2.</_></rects>
      <tilted>0</tilted></_>
    <_>
      <rects>
        <_>
          6 13 15 3 -1.</_>
        <_>
          11 13 5 3 2.</_></rects>
      <tilted>0</tilted></_>
    <_>
      <rects>
        <_>
          7 10 9 10 -1.</_>
        <_>
          10 10 3 10 2.</_></rects>
      <tilted>0</tilted></_>
    <_>
      <rects>
        <_>
          8 2 7 8 -1.</_>
        <_>
          8 6 7 4 2.</_></rects>
      <tilted>0</tilted></_>
    <_>
      <rects>
        <_>
          8 7 8 10 -1.</_>
        <_>
          8 12 8 5 2.</_></rects>
      <tilted>0</tilted></_>
    <_>
      <rects>
        <_>
          9 0 6 2 -1.</_>
        <_>
          9 1 6 1 2.</_></rects>
      <tilted>0</tilted></_>
    <_>
      <rects>
        <_>
          9 4 6 12 -1.</_>
        <_>
          9 8 6 4 2.</_></rects>
      <tilted>0</tilted></_>
    <_>
      <rects>
        <_>
          9 17 8 4 -1.</_>
        <_>
          9 19 8 2 2.</_></rects>
      <tilted>0</tilted></_>
    <_>
      <rects>
        <_>
          10 3 5 4 -1.</_>
        <_>
          10 5 5 2 2.</_></rects>
      <tilted>0</tilted></_>
    <_>
      <rects>
        <_>
          10 14 6 2 -1.</_>
        <_>
          10 15 6 1 2.</_></rects>
      <tilted>0</tilted></_>
    <_>
      <rects>
        <_>
          10 17 4 1 -1.</_>
        <_>
          12 17 2 1 2.</_></rects>
      <tilted>0</tilted></_>
    <_>
      <rects>
        <_>
          10 17 4 2 -1.</_>
        <_>
          12 17 2 2 2.</_></rects>
      <tilted>0</tilted></_>
    <_>
      <rects>
        <_>
          14 0 10 6 -1.</_>
        <_>
          14 0 5 3 2.</_>
        <_>
          19 3 5 3 2.</_></rects>
      <tilted>0</tilted></_>
    <_>
      <rects>
        <_>
          14 15 8 2 -1.</_>
        <_>
          14 16 8 1 2.</_></rects>
      <tilted>0</tilted></_>
    <_>
      <rects>
        <_>
          20 0 4 17 -1.</_>
        <_>
          22 0 2 17 2.</_></rects>
      <tilted>0</tilted></_></features></cascade>
</opencv_storage>
